digraph Tree {
node [shape=box, style="rounded", color="black", fontname="helvetica"] ;
edge [fontname="helvetica"] ;
0 [label="X[2] <= 2.6\ngini = 0.667\nsamples = 111\nvalue = [37, 37, 37]"] ;
1 [label="gini = 0.0\nsamples = 37\nvalue = [37, 0, 0]"] ;
0 -> 1 [labeldistance=2.5, labelangle=45, headlabel="True"] ;
2 [label="X[3] <= 1.65\ngini = 0.5\nsamples = 74\nvalue = [0, 37, 37]"] ;
0 -> 2 [labeldistance=2.5, labelangle=-45, headlabel="False"] ;
3 [label="X[2] <= 5.35\ngini = 0.054\nsamples = 36\nvalue = [0, 35, 1]"] ;
2 -> 3 ;
4 [label="gini = 0.0\nsamples = 35\nvalue = [0, 35, 0]"] ;
3 -> 4 ;
5 [label="gini = 0.0\nsamples = 1\nvalue = [0, 0, 1]"] ;
3 -> 5 ;
6 [label="X[3] <= 1.75\ngini = 0.1\nsamples = 38\nvalue = [0, 2, 36]"] ;
2 -> 6 ;
7 [label="X[2] <= 4.75\ngini = 0.5\nsamples = 2\nvalue = [0, 1, 1]"] ;
6 -> 7 ;
8 [label="gini = 0.0\nsamples = 1\nvalue = [0, 0, 1]"] ;
7 -> 8 ;
9 [label="gini = 0.0\nsamples = 1\nvalue = [0, 1, 0]"] ;
7 -> 9 ;
10 [label="X[2] <= 4.85\ngini = 0.054\nsamples = 36\nvalue = [0, 1, 35]"] ;
6 -> 10 ;
11 [label="X[1] <= 3.1\ngini = 0.444\nsamples = 3\nvalue = [0, 1, 2]"] ;
10 -> 11 ;
12 [label="gini = 0.0\nsamples = 2\nvalue = [0, 0, 2]"] ;
11 -> 12 ;
13 [label="gini = 0.0\nsamples = 1\nvalue = [0, 1, 0]"] ;
11 -> 13 ;
14 [label="gini = 0.0\nsamples = 33\nvalue = [0, 0, 33]"] ;
10 -> 14 ;
}
